digraph Tree {
node [shape=box, style="filled, rounded", color="black", fontname=helvetica] ;
edge [fontname=helvetica] ;
0 [label="Sex <= 0.5\ngini = 0.466\nsamples = 622\nvalue = [392, 230]", fillcolor="#e5813969"] ;
1 [label="Pclass <= 2.5\ngini = 0.385\nsamples = 211\nvalue = [55, 156]", fillcolor="#399de5a5"] ;
0 -> 1 [labeldistance=2.5, labelangle=45, headlabel="True"] ;
2 [label="Age <= 2.5\ngini = 0.115\nsamples = 114\nvalue = [7, 107]", fillcolor="#399de5ee"] ;
1 -> 2 ;
3 [label="gini = 0.0\nsamples = 1\nvalue = [1, 0]", fillcolor="#e58139ff"] ;
2 -> 3 ;
4 [label="Fare <= 26.125\ngini = 0.101\nsamples = 113\nvalue = [6, 107]", fillcolor="#399de5f1"] ;
2 -> 4 ;
5 [label="Age <= 56.0\ngini = 0.234\nsamples = 37\nvalue = [5, 32]", fillcolor="#399de5d7"] ;
4 -> 5 ;
6 [label="gini = 0.198\nsamples = 36\nvalue = [4, 32]", fillcolor="#399de5df"] ;
5 -> 6 ;
7 [label="gini = 0.0\nsamples = 1\nvalue = [1, 0]", fillcolor="#e58139ff"] ;
5 -> 7 ;
8 [label="Fare <= 149.035\ngini = 0.026\nsamples = 76\nvalue = [1, 75]", fillcolor="#399de5fc"] ;
4 -> 8 ;
9 [label="gini = 0.0\nsamples = 62\nvalue = [0, 62]", fillcolor="#399de5ff"] ;
8 -> 9 ;
10 [label="gini = 0.133\nsamples = 14\nvalue = [1, 13]", fillcolor="#399de5eb"] ;
8 -> 10 ;
11 [label="Fare <= 24.808\ngini = 0.5\nsamples = 97\nvalue = [48, 49]", fillcolor="#399de505"] ;
1 -> 11 ;
12 [label="Fare <= 8.04\ngini = 0.485\nsamples = 80\nvalue = [33, 47]", fillcolor="#399de54c"] ;
11 -> 12 ;
13 [label="Age <= 30.35\ngini = 0.375\nsamples = 32\nvalue = [8, 24]", fillcolor="#399de5aa"] ;
12 -> 13 ;
14 [label="gini = 0.35\nsamples = 31\nvalue = [7, 24]", fillcolor="#399de5b5"] ;
13 -> 14 ;
15 [label="gini = 0.0\nsamples = 1\nvalue = [1, 0]", fillcolor="#e58139ff"] ;
13 -> 15 ;
16 [label="Fare <= 15.373\ngini = 0.499\nsamples = 48\nvalue = [25, 23]", fillcolor="#e5813914"] ;
12 -> 16 ;
17 [label="gini = 0.436\nsamples = 28\nvalue = [19, 9]", fillcolor="#e5813986"] ;
16 -> 17 ;
18 [label="gini = 0.42\nsamples = 20\nvalue = [6, 14]", fillcolor="#399de592"] ;
16 -> 18 ;
19 [label="Fare <= 31.331\ngini = 0.208\nsamples = 17\nvalue = [15, 2]", fillcolor="#e58139dd"] ;
11 -> 19 ;
20 [label="gini = 0.0\nsamples = 10\nvalue = [10, 0]", fillcolor="#e58139ff"] ;
19 -> 20 ;
21 [label="Fare <= 32.881\ngini = 0.408\nsamples = 7\nvalue = [5, 2]", fillcolor="#e5813999"] ;
19 -> 21 ;
22 [label="gini = 0.0\nsamples = 2\nvalue = [0, 2]", fillcolor="#399de5ff"] ;
21 -> 22 ;
23 [label="gini = 0.0\nsamples = 5\nvalue = [5, 0]", fillcolor="#e58139ff"] ;
21 -> 23 ;
24 [label="Fare <= 52.277\ngini = 0.295\nsamples = 411\nvalue = [337, 74]", fillcolor="#e58139c7"] ;
0 -> 24 [labeldistance=2.5, labelangle=-45, headlabel="False"] ;
25 [label="Age <= 3.5\ngini = 0.242\nsamples = 363\nvalue = [312, 51]", fillcolor="#e58139d5"] ;
24 -> 25 ;
26 [label="Fare <= 38.346\ngini = 0.444\nsamples = 15\nvalue = [5, 10]", fillcolor="#399de57f"] ;
25 -> 26 ;
27 [label="Pclass <= 2.5\ngini = 0.278\nsamples = 12\nvalue = [2, 10]", fillcolor="#399de5cc"] ;
26 -> 27 ;
28 [label="gini = 0.0\nsamples = 6\nvalue = [0, 6]", fillcolor="#399de5ff"] ;
27 -> 28 ;
29 [label="gini = 0.444\nsamples = 6\nvalue = [2, 4]", fillcolor="#399de57f"] ;
27 -> 29 ;
30 [label="gini = 0.0\nsamples = 3\nvalue = [3, 0]", fillcolor="#e58139ff"] ;
26 -> 30 ;
31 [label="Pclass <= 1.5\ngini = 0.208\nsamples = 348\nvalue = [307, 41]", fillcolor="#e58139dd"] ;
25 -> 31 ;
32 [label="Age <= 28.5\ngini = 0.397\nsamples = 44\nvalue = [32, 12]", fillcolor="#e581399f"] ;
31 -> 32 ;
33 [label="gini = 0.375\nsamples = 4\nvalue = [1, 3]", fillcolor="#399de5aa"] ;
32 -> 33 ;
34 [label="gini = 0.349\nsamples = 40\nvalue = [31, 9]", fillcolor="#e58139b5"] ;
32 -> 34 ;
35 [label="Age <= 32.25\ngini = 0.173\nsamples = 304\nvalue = [275, 29]", fillcolor="#e58139e4"] ;
31 -> 35 ;
36 [label="gini = 0.211\nsamples = 225\nvalue = [198, 27]", fillcolor="#e58139dc"] ;
35 -> 36 ;
37 [label="gini = 0.049\nsamples = 79\nvalue = [77, 2]", fillcolor="#e58139f8"] ;
35 -> 37 ;
38 [label="Fare <= 59.088\ngini = 0.499\nsamples = 48\nvalue = [25, 23]", fillcolor="#e5813914"] ;
24 -> 38 ;
39 [label="Age <= 22.0\ngini = 0.408\nsamples = 14\nvalue = [4, 10]", fillcolor="#399de599"] ;
38 -> 39 ;
40 [label="gini = 0.0\nsamples = 1\nvalue = [1, 0]", fillcolor="#e58139ff"] ;
39 -> 40 ;
41 [label="Age <= 46.0\ngini = 0.355\nsamples = 13\nvalue = [3, 10]", fillcolor="#399de5b3"] ;
39 -> 41 ;
42 [label="gini = 0.278\nsamples = 12\nvalue = [2, 10]", fillcolor="#399de5cc"] ;
41 -> 42 ;
43 [label="gini = 0.0\nsamples = 1\nvalue = [1, 0]", fillcolor="#e58139ff"] ;
41 -> 43 ;
44 [label="Fare <= 75.115\ngini = 0.472\nsamples = 34\nvalue = [21, 13]", fillcolor="#e5813961"] ;
38 -> 44 ;
45 [label="Embarked <= 1.0\ngini = 0.153\nsamples = 12\nvalue = [11, 1]", fillcolor="#e58139e8"] ;
44 -> 45 ;
46 [label="gini = 0.5\nsamples = 2\nvalue = [1, 1]", fillcolor="#e5813900"] ;
45 -> 46 ;
47 [label="gini = 0.0\nsamples = 10\nvalue = [10, 0]", fillcolor="#e58139ff"] ;
45 -> 47 ;
48 [label="Age <= 17.5\ngini = 0.496\nsamples = 22\nvalue = [10, 12]", fillcolor="#399de52a"] ;
44 -> 48 ;
49 [label="gini = 0.0\nsamples = 3\nvalue = [0, 3]", fillcolor="#399de5ff"] ;
48 -> 49 ;
50 [label="gini = 0.499\nsamples = 19\nvalue = [10, 9]", fillcolor="#e5813919"] ;
48 -> 50 ;
}